digraph Tree {
node [shape=box, style="filled, rounded", color="black", fontname="helvetica"] ;
edge [fontname="helvetica"] ;
0 [label="petal width (cm) <= 0.7\ngini = 0.66\nsamples = 91\nvalue = [45, 56, 49]\nclass = versicolor", fillcolor="#f1fdf6"] ;
1 [label="gini = 0.0\nsamples = 28\nvalue = [45, 0, 0]\nclass = setosa", fillcolor="#e58139"] ;
0 -> 1 [labeldistance=2.5, labelangle=45, headlabel="True"] ;
2 [label="sepal length (cm) <= 6.25\ngini = 0.5\nsamples = 63\nvalue = [0, 56, 49]\nclass = versicolor", fillcolor="#e6fcef"] ;
0 -> 2 [labeldistance=2.5, labelangle=-45, headlabel="False"] ;
3 [label="sepal length (cm) <= 5.75\ngini = 0.33\nsamples = 31\nvalue = [0, 41, 11]\nclass = versicolor", fillcolor="#6eeca3"] ;
2 -> 3 ;
4 [label="sepal width (cm) <= 2.85\ngini = 0.08\nsamples = 15\nvalue = [0, 23, 1]\nclass = versicolor", fillcolor="#42e686"] ;
3 -> 4 ;
5 [label="petal width (cm) <= 1.7\ngini = 0.17\nsamples = 9\nvalue = [0, 10, 1]\nclass = versicolor", fillcolor="#4de88e"] ;
4 -> 5 ;
6 [label="gini = 0.0\nsamples = 8\nvalue = [0, 10, 0]\nclass = versicolor", fillcolor="#39e581"] ;
5 -> 6 ;
7 [label="gini = 0.0\nsamples = 1\nvalue = [0, 0, 1]\nclass = virginica", fillcolor="#8139e5"] ;
5 -> 7 ;
8 [label="gini = 0.0\nsamples = 6\nvalue = [0, 13, 0]\nclass = versicolor", fillcolor="#39e581"] ;
4 -> 8 ;
9 [label="petal width (cm) <= 1.85\ngini = 0.46\nsamples = 16\nvalue = [0, 18, 10]\nclass = versicolor", fillcolor="#a7f3c7"] ;
3 -> 9 ;
10 [label="sepal width (cm) <= 2.65\ngini = 0.3\nsamples = 12\nvalue = [0, 18, 4]\nclass = versicolor", fillcolor="#65eb9d"] ;
9 -> 10 ;
11 [label="sepal length (cm) <= 6.15\ngini = 0.49\nsamples = 4\nvalue = [0, 4, 3]\nclass = versicolor", fillcolor="#cef8e0"] ;
10 -> 11 ;
12 [label="petal width (cm) <= 1.3\ngini = 0.38\nsamples = 3\nvalue = [0, 1, 3]\nclass = virginica", fillcolor="#ab7bee"] ;
11 -> 12 ;
13 [label="gini = 0.0\nsamples = 1\nvalue = [0, 1, 0]\nclass = versicolor", fillcolor="#39e581"] ;
12 -> 13 ;
14 [label="gini = 0.0\nsamples = 2\nvalue = [0, 0, 3]\nclass = virginica", fillcolor="#8139e5"] ;
12 -> 14 ;
15 [label="gini = 0.0\nsamples = 1\nvalue = [0, 3, 0]\nclass = versicolor", fillcolor="#39e581"] ;
11 -> 15 ;
16 [label="petal width (cm) <= 1.7\ngini = 0.12\nsamples = 8\nvalue = [0, 14, 1]\nclass = versicolor", fillcolor="#47e78a"] ;
10 -> 16 ;
17 [label="gini = 0.0\nsamples = 6\nvalue = [0, 13, 0]\nclass = versicolor", fillcolor="#39e581"] ;
16 -> 17 ;
18 [label="sepal length (cm) <= 6.0\ngini = 0.5\nsamples = 2\nvalue = [0, 1, 1]\nclass = versicolor", fillcolor="#ffffff"] ;
16 -> 18 ;
19 [label="gini = 0.0\nsamples = 1\nvalue = [0, 1, 0]\nclass = versicolor", fillcolor="#39e581"] ;
18 -> 19 ;
20 [label="gini = 0.0\nsamples = 1\nvalue = [0, 0, 1]\nclass = virginica", fillcolor="#8139e5"] ;
18 -> 20 ;
21 [label="gini = 0.0\nsamples = 4\nvalue = [0, 0, 6]\nclass = virginica", fillcolor="#8139e5"] ;
9 -> 21 ;
22 [label="sepal width (cm) <= 2.4\ngini = 0.41\nsamples = 32\nvalue = [0, 15, 38]\nclass = virginica", fillcolor="#b387ef"] ;
2 -> 22 ;
23 [label="gini = 0.0\nsamples = 1\nvalue = [0, 3, 0]\nclass = versicolor", fillcolor="#39e581"] ;
22 -> 23 ;
24 [label="petal length (cm) <= 5.05\ngini = 0.36\nsamples = 31\nvalue = [0, 12, 38]\nclass = virginica", fillcolor="#a978ed"] ;
22 -> 24 ;
25 [label="sepal length (cm) <= 6.35\ngini = 0.24\nsamples = 8\nvalue = [0, 12, 2]\nclass = versicolor", fillcolor="#5ae996"] ;
24 -> 25 ;
26 [label="gini = 0.0\nsamples = 1\nvalue = [0, 0, 2]\nclass = virginica", fillcolor="#8139e5"] ;
25 -> 26 ;
27 [label="gini = 0.0\nsamples = 7\nvalue = [0, 12, 0]\nclass = versicolor", fillcolor="#39e581"] ;
25 -> 27 ;
28 [label="gini = 0.0\nsamples = 23\nvalue = [0, 0, 36]\nclass = virginica", fillcolor="#8139e5"] ;
24 -> 28 ;
}